digraph Tree {
node [shape=box, style="filled", color="black"] ;
0 [label="OverallQual <= 7.5\nmse = 6555547771.981\nsamples = 900\nvalue = 182796.264", fillcolor="#e581392d"] ;
1 [label="OverallQual <= 6.5\nmse = 2543594271.288\nsamples = 755\nvalue = 158338.054", fillcolor="#e581391a"] ;
0 -> 1 [labeldistance=2.5, labelangle=45, headlabel="True"] ;
2 [label="GrLivArea <= 1409.0\nmse = 1403281151.866\nsamples = 557\nvalue = 140151.093", fillcolor="#e581390b"] ;
1 -> 2 ;
3 [label="mse = 835257998.169\nsamples = 369\nvalue = 126297.206", fillcolor="#e5813900"] ;
2 -> 3 ;
4 [label="mse = 1402062083.627\nsamples = 188\nvalue = 167343.032", fillcolor="#e5813921"] ;
2 -> 4 ;
5 [label="GrLivArea <= 1941.0\nmse = 2203375996.363\nsamples = 198\nvalue = 209500.364", fillcolor="#e5813943"] ;
1 -> 5 ;
6 [label="mse = 1301881404.324\nsamples = 147\nvalue = 194833.313", fillcolor="#e5813937"] ;
5 -> 6 ;
7 [label="mse = 2394515198.294\nsamples = 51\nvalue = 251775.98", fillcolor="#e5813965"] ;
5 -> 7 ;
8 [label="OverallQual <= 8.5\nmse = 8112216599.791\nsamples = 145\nvalue = 310147.634", fillcolor="#e5813994"] ;
0 -> 8 [labeldistance=2.5, labelangle=-45, headlabel="False"] ;
9 [label="GrLivArea <= 1970.5\nmse = 3565636574.815\nsamples = 103\nvalue = 278063.019", fillcolor="#e581397a"] ;
8 -> 9 ;
10 [label="mse = 1996104306.063\nsamples = 63\nvalue = 250156.0", fillcolor="#e5813964"] ;
9 -> 10 ;
11 [label="mse = 2879122120.644\nsamples = 40\nvalue = 322016.575", fillcolor="#e581399d"] ;
9 -> 11 ;
12 [label="GrLivArea <= 2229.0\nmse = 10546502197.175\nsamples = 42\nvalue = 388831.333", fillcolor="#e58139d3"] ;
8 -> 12 ;
13 [label="mse = 1926708802.696\nsamples = 22\nvalue = 339236.409", fillcolor="#e58139ab"] ;
12 -> 13 ;
14 [label="mse = 14346468391.587\nsamples = 20\nvalue = 443385.75", fillcolor="#e58139ff"] ;
12 -> 14 ;
}